digraph Tree {
node [shape=box] ;
0 [label="X[1] <= 1.874\ngini = 0.488\nsamples = 25\nvalue = [26, 19]\nclass = N"] ;
1 [label="X[1] <= -0.978\ngini = 0.33\nsamples = 14\nvalue = [5, 19]\nclass = P"] ;
0 -> 1 [labeldistance=2.5, labelangle=45, headlabel="True"] ;
2 [label="gini = 0.0\nsamples = 1\nvalue = [2, 0]\nclass = N"] ;
1 -> 2 ;
3 [label="gini = 0.236\nsamples = 13\nvalue = [3, 19]\nclass = P"] ;
1 -> 3 ;
4 [label="gini = 0.0\nsamples = 11\nvalue = [21, 0]\nclass = N"] ;
0 -> 4 [labeldistance=2.5, labelangle=-45, headlabel="False"] ;
}