digraph Tree {
node [shape=box] ;
0 [label="X[0] <= 1.421\ngini = 0.429\nsamples = 29\nvalue = [31, 14]\nclass = N"] ;
1 [label="X[1] <= 1.874\ngini = 0.476\nsamples = 16\nvalue = [9, 14]\nclass = P"] ;
0 -> 1 [labeldistance=2.5, labelangle=45, headlabel="True"] ;
2 [label="gini = 0.0\nsamples = 11\nvalue = [0, 14]\nclass = P"] ;
1 -> 2 ;
3 [label="gini = 0.0\nsamples = 5\nvalue = [9, 0]\nclass = N"] ;
1 -> 3 ;
4 [label="gini = 0.0\nsamples = 13\nvalue = [22, 0]\nclass = N"] ;
0 -> 4 [labeldistance=2.5, labelangle=-45, headlabel="False"] ;
}