digraph Tree {
node [shape=box] ;
0 [label="X[1] <= 1.908\ngini = 0.458\nsamples = 45\nvalue = [29, 16]\nclass = N"] ;
1 [label="X[0] <= 1.719\ngini = 0.363\nsamples = 21\nvalue = [5, 16]\nclass = P"] ;
0 -> 1 [labeldistance=2.5, labelangle=45, headlabel="True"] ;
2 [label="gini = 0.0\nsamples = 16\nvalue = [0, 16]\nclass = P"] ;
1 -> 2 ;
3 [label="gini = 0.0\nsamples = 5\nvalue = [5, 0]\nclass = N"] ;
1 -> 3 ;
4 [label="gini = 0.0\nsamples = 24\nvalue = [24, 0]\nclass = N"] ;
0 -> 4 [labeldistance=2.5, labelangle=-45, headlabel="False"] ;
}